{"generation": 100, "best_fitness": 203.33333333333334, "best_individual": {"weights": [-0.5584344271979169, 0.5494307441199052, -0.14905986660533102, 0.6615975001745804, 0.782023012297376], "bias": [1.0754401865441032, -0.3285856024526862]}, "population": [{"weights": [-0.5409467377645983, 0.5494307441199052, -0.14905986660533102, 0.8078466930453846, 0.782023012297376], "bias": [1.2148626877935624, -0.3285856024526862]}, {"weights": [-0.5409467377645983, 0.5494307441199052, -0.14905986660533102, 0.9917739639058499, 0.5998516170193355], "bias": [1.0362906484250245, -0.3285856024526862]}, {"weights": [-0.9118867683385634, 0.5494307441199052, 0.012891728144888065, 0.7750829906909401, 0.6012204262031328], "bias": [1.024908331712802, -0.4604216950128982]}, {"weights": [-0.7372493956926386, 0.5494307441199052, -0.14905986660533102, 0.847069559378057, 0.782023012297376], "bias": [1.2148626877935624, -0.3285856024526862]}, {"weights": [-0.5409467377645983, 0.5494307441199052, -0.14905986660533102, 0.9917739639058499, 0.5801813597124014], "bias": [1.024908331712802, -0.3285856024526862]}, {"weights": [-0.6400867263084292, 0.5494307441199052, -0.14905986660533102, 0.847069559378057, 0.6012204262031328], "bias": [1.112643003446595, -0.3285856024526862]}, {"weights": [-0.9118867683385634, 0.5494307441199052, -0.14905986660533102, 0.7750829906909401, 0.6012204262031328], "bias": [1.024908331712802, -0.4604216950128982]}, {"weights": [-0.5409467377645983, 0.6338541962580982, -0.14905986660533102, 0.8078466930453846, 0.5998516170193355], "bias": [1.0362906484250245, -0.3285856024526862]}, {"weights": [-0.5409467377645983, 0.5494307441199052, -0.14905986660533102, 0.8078466930453846, 0.782023012297376], "bias": [1.351994362445108, -0.3320994201394858]}, {"weights": [-0.8513300247162852, 0.5494307441199052, -0.1283908337324097, 0.7750829906909401, 0.6012204262031328], "bias": [1.2148626877935624, -0.46581289139514703]}, {"weights": [-0.5409467377645983, 0.5494307441199052, -0.14905986660533102, 0.847069559378057, 0.782023012297376], "bias": [1.2148626877935624, -0.3285856024526862]}, {"weights": [-0.9118867683385634, 0.5494307441199052, 0.012891728144888065, 0.9917739639058499, 0.5998516170193355], "bias": [1.0362906484250245, -0.4604216950128982]}, {"weights": [-0.6400867263084292, 0.5494307441199052, -0.14905986660533102, 0.7196368146356857, 0.6012204262031328], "bias": [1.2044521801670225, -0.3301568228989906]}, {"weights": [-0.9118867683385634, 0.5494307441199052, -0.18890820806040406, 0.847069559378057, 0.6012204262031328], "bias": [1.024908331712802, -0.3285856024526862]}, {"weights": [-0.3909359410992881, 0.5494307441199052, -0.14905986660533102, 0.9917739639058499, 0.5998516170193355], "bias": [1.2148626877935624, -0.3285856024526862]}, {"weights": [-0.6400867263084292, 0.5494307441199052, -0.14905986660533102, 0.847069559378057, 0.782023012297376], "bias": [1.2148626877935624, -0.3285856024526862]}, {"weights": [-0.5409467377645983, 0.6870759619451442, -0.14905986660533102, 0.8078466930453846, 0.5998516170193355], "bias": [1.2148626877935624, -0.3285856024526862]}, {"weights": [-0.9118867683385634, 0.5494307441199052, -0.14905986660533102, 0.8078466930453846, 0.6012204262031328], "bias": [1.024908331712802, -0.4079400709056329]}, {"weights": [-0.6135955811003159, 0.5494307441199052, -0.14905986660533102, 0.847069559378057, 0.5998516170193355], "bias": [1.2148626877935624, -0.23438572439891336]}, {"weights": [-0.48032630375415203, 0.5494307441199052, 0.012891728144888065, 0.8078466930453846, 0.6012204262031328], "bias": [1.2148626877935624, -0.3285856024526862]}]}