{"generation": 60, "best_fitness": 560.6666666666666, "best_individual": {"weights": [-0.7012588588806778, -0.1620105964712063, 0.005774419798961095, 0.40115287321469545, 0.4022957366631816], "bias": [0.9026631491788762, -0.8336764742857831]}, "population": [{"weights": [-0.7012588588806778, 0.2695516659119944, -0.1673507561540243, 0.7408867081484272, 0.5772401264520749], "bias": [0.9103208159470516, -0.6258325449018541]}, {"weights": [-0.7012588588806778, 0.35511437560415837, -0.1673507561540243, 0.7408867081484272, 0.4822814216244509], "bias": [0.8513233465675409, -0.6258325449018541]}, {"weights": [-0.7012588588806778, 0.16854320093719663, -0.1673507561540243, 0.7408867081484272, 0.4822814216244509], "bias": [0.9103208159470516, -0.4727487113014129]}, {"weights": [-0.7012588588806778, 0.16854320093719663, -0.1673507561540243, 0.6126195293378547, 0.4822814216244509], "bias": [0.9103208159470516, -0.6258325449018541]}, {"weights": [-0.7012588588806778, 0.16854320093719663, -0.1673507561540243, 0.6116499590599028, 0.4822814216244509], "bias": [0.9103208159470516, -0.6258325449018541]}, {"weights": [-0.7012588588806778, 0.35139982828031735, -0.1673507561540243, 0.7794070721213606, 0.4822814216244509], "bias": [0.9103208159470516, -0.6258325449018541]}, {"weights": [-0.7065804068572281, 0.35511437560415837, -0.1673507561540243, 0.6116499590599028, 0.4822814216244509], "bias": [0.8513233465675409, -0.6258325449018541]}, {"weights": [-0.7012588588806778, 0.35139982828031735, -0.1673507561540243, 0.7794070721213606, 0.6212694841868341], "bias": [0.9103208159470516, -0.6258325449018541]}, {"weights": [-0.7012588588806778, 0.16854320093719663, -0.1673507561540243, 0.7408867081484272, 0.4822814216244509], "bias": [0.8513233465675409, -0.6258325449018541]}, {"weights": [-0.7012588588806778, 0.16854320093719663, -0.1673507561540243, 0.9057081971430709, 0.4822814216244509], "bias": [0.8513233465675409, -0.6258325449018541]}, {"weights": [-0.7012588588806778, 0.16854320093719663, -0.1673507561540243, 0.6116499590599028, 0.4822814216244509], "bias": [0.9103208159470516, -0.6258325449018541]}, {"weights": [-0.7012588588806778, 0.16854320093719663, -0.1673507561540243, 0.6528495211319435, 0.4822814216244509], "bias": [0.9103208159470516, -0.6258325449018541]}, {"weights": [-0.7012588588806778, 0.35139982828031735, -0.1673507561540243, 0.7408867081484272, 0.47980277467710514], "bias": [0.9103208159470516, -0.49475415390009225]}, {"weights": [-0.7012588588806778, 0.16854320093719663, -0.1673507561540243, 0.695104884499882, 0.4822814216244509], "bias": [0.8513233465675409, -0.6258325449018541]}, {"weights": [-0.7012588588806778, 0.16854320093719663, -0.1673507561540243, 0.6528495211319435, 0.4822814216244509], "bias": [0.9103208159470516, -0.655875557564155]}, {"weights": [-0.7012588588806778, 0.35139982828031735, -0.1673507561540243, 0.6116499590599028, 0.4822814216244509], "bias": [0.9103208159470516, -0.6258325449018541]}, {"weights": [-0.7012588588806778, 0.35511437560415837, -0.1673507561540243, 0.7794070721213606, 0.4822814216244509], "bias": [0.8513233465675409, -0.6258325449018541]}, {"weights": [-0.6605717642286821, 0.16854320093719663, -0.1673507561540243, 0.7794070721213606, 0.4822814216244509], "bias": [0.9103208159470516, -0.6258325449018541]}, {"weights": [-0.7012588588806778, 0.16854320093719663, -0.1673507561540243, 0.7408867081484272, 0.4822814216244509], "bias": [0.9103208159470516, -0.769238267340218]}, {"weights": [-0.7012588588806778, 0.35511437560415837, -0.1673507561540243, 0.6528495211319435, 0.4822814216244509], "bias": [0.9103208159470516, -0.6258325449018541]}], "training_history": [{"generation": 51, "best_fitness": 77.66666666666667, "avg_fitness": 53.766666666666666, "generation_time": 538.1725051403046, "improved": false, "fitness_distribution": {"max": 77.66666666666667, "min": 44.333333333333336, "std": 7.65368466092567}}, {"generation": 52, "best_fitness": 79.33333333333333, "avg_fitness": 55.26666666666667, "generation_time": 570.80406498909, "improved": false, "fitness_distribution": {"max": 79.33333333333333, "min": 44.0, "std": 10.748436578818747}}, {"generation": 53, "best_fitness": 114.0, "avg_fitness": 68.05, "generation_time": 553.4764308929443, "improved": false, "fitness_distribution": {"max": 114.0, "min": 44.0, "std": 16.25261517418043}}, {"generation": 54, "best_fitness": 188.66666666666666, "avg_fitness": 80.1, "generation_time": 657.6354207992554, "improved": false, "fitness_distribution": {"max": 188.66666666666666, "min": 47.0, "std": 31.327144778929338}}, {"generation": 55, "best_fitness": 110.66666666666667, "avg_fitness": 75.76666666666665, "generation_time": 605.4743230342865, "improved": false, "fitness_distribution": {"max": 110.66666666666667, "min": 53.666666666666664, "std": 13.765133086493893}}, {"generation": 56, "best_fitness": 138.66666666666666, "avg_fitness": 87.65, "generation_time": 662.0947608947754, "improved": false, "fitness_distribution": {"max": 138.66666666666666, "min": 61.666666666666664, "std": 20.600559593262403}}, {"generation": 57, "best_fitness": 120.0, "avg_fitness": 81.0, "generation_time": 871.1737608909607, "improved": false, "fitness_distribution": {"max": 120.0, "min": 61.666666666666664, "std": 15.50125442952566}}, {"generation": 58, "best_fitness": 144.66666666666666, "avg_fitness": 82.78333333333333, "generation_time": 633.1439590454102, "improved": false, "fitness_distribution": {"max": 144.66666666666666, "min": 57.333333333333336, "std": 23.888461882488603}}, {"generation": 59, "best_fitness": 187.66666666666666, "avg_fitness": 92.48333333333335, "generation_time": 683.1737332344055, "improved": false, "fitness_distribution": {"max": 187.66666666666666, "min": 60.0, "std": 32.76676415719644}}, {"generation": 60, "best_fitness": 147.33333333333334, "avg_fitness": 85.16666666666666, "generation_time": 647.3007550239563, "improved": false, "fitness_distribution": {"max": 147.33333333333334, "min": 58.333333333333336, "std": 23.74950291877472}}], "config": {"training": {"population_size": 20, "generations": 50, "runs_per_individual": 3, "save_file": "dino_population.json", "checkpoint_interval": 5, "checkpoint_dir": "checkpoints", "max_checkpoints": 10}, "genetic": {"mutation_rate": 0.1, "mutation_scale": 0.2, "tournament_size": 3, "elite_count": 3, "elite_diversity_threshold": 0.1}, "game": {"delay": 0.01, "window_width": 800, "window_height": 600, "simulation_mode": false}}, "timestamp": "20250816_133540"}