{"generation": 80, "best_fitness": 180.66666666666666, "best_individual": {"weights": [-0.7012588588806778, 0.4418867040985046, -0.1673507561540243, 0.7794070721213606, 0.7025915423657039], "bias": [1.024908331712802, -0.34136653367643843]}, "population": [{"weights": [-0.7012588588806778, 0.3605599700170823, -0.0019135394784469406, 0.9523338269063368, 0.6212694841868341], "bias": [1.024908331712802, -0.34136653367643843]}, {"weights": [-0.7012588588806778, 0.48556956276930746, -0.1673507561540243, 0.7794070721213606, 0.6212694841868341], "bias": [0.873682568678439, -0.34136653367643843]}, {"weights": [-0.7012588588806778, 0.35139982828031735, -0.1673507561540243, 0.7794070721213606, 0.6212694841868341], "bias": [1.024908331712802, -0.34136653367643843]}, {"weights": [-0.7012588588806778, 0.35139982828031735, -0.32980103065350974, 0.7794070721213606, 0.6212694841868341], "bias": [0.873682568678439, -0.34136653367643843]}, {"weights": [-0.7012588588806778, 0.3605599700170823, -0.23551528851797635, 0.7794070721213606, 0.6212694841868341], "bias": [0.8780201158192742, -0.34136653367643843]}, {"weights": [-0.7012588588806778, 0.3605599700170823, -0.0019135394784469406, 0.9523338269063368, 0.6212694841868341], "bias": [1.024908331712802, -0.34136653367643843]}, {"weights": [-0.827767688883897, 0.3605599700170823, -0.0019135394784469406, 0.9523338269063368, 0.6212694841868341], "bias": [1.024908331712802, -0.34136653367643843]}, {"weights": [-0.7012588588806778, 0.3605599700170823, -0.1673507561540243, 0.9523338269063368, 0.6212694841868341], "bias": [1.024908331712802, -0.34136653367643843]}, {"weights": [-0.7012588588806778, 0.35139982828031735, -0.1673507561540243, 0.7794070721213606, 0.6212694841868341], "bias": [1.024908331712802, -0.34136653367643843]}, {"weights": [-0.8945069337984717, 0.48556956276930746, -0.1673507561540243, 0.7794070721213606, 0.6212694841868341], "bias": [0.873682568678439, -0.34136653367643843]}, {"weights": [-0.7012588588806778, 0.35139982828031735, -0.23551528851797635, 0.7794070721213606, 0.6212694841868341], "bias": [1.024908331712802, -0.34136653367643843]}, {"weights": [-0.7012588588806778, 0.3605599700170823, -0.0019135394784469406, 0.9523338269063368, 0.6212694841868341], "bias": [1.024908331712802, -0.34136653367643843]}, {"weights": [-0.7012588588806778, 0.35139982828031735, -0.0019135394784469406, 0.9523338269063368, 0.6906180013353845], "bias": [1.2004585913583392, -0.24675422921476275]}, {"weights": [-0.7012588588806778, 0.48556956276930746, -0.1673507561540243, 0.9523338269063368, 0.6212694841868341], "bias": [0.873682568678439, -0.34136653367643843]}, {"weights": [-0.7012588588806778, 0.3605599700170823, -0.0019135394784469406, 0.7794070721213606, 0.6212694841868341], "bias": [1.024908331712802, -0.28787651139014253]}, {"weights": [-0.7012588588806778, 0.3605599700170823, -0.0019135394784469406, 0.7794070721213606, 0.6212694841868341], "bias": [0.9440448123143775, -0.34136653367643843]}, {"weights": [-0.6906252346803242, 0.35139982828031735, -0.0019135394784469406, 1.1403524022885827, 0.6212694841868341], "bias": [1.024908331712802, -0.34136653367643843]}, {"weights": [-0.6906252346803242, 0.35139982828031735, -0.23551528851797635, 0.7318283331194108, 0.6212694841868341], "bias": [0.9207152130011816, -0.34136653367643843]}, {"weights": [-0.6906252346803242, 0.3545051904794866, -0.1673507561540243, 0.7794070721213606, 0.6212694841868341], "bias": [0.873682568678439, -0.34136653367643843]}, {"weights": [-0.7012588588806778, 0.48556956276930746, -0.1673507561540243, 0.7794070721213606, 0.6212694841868341], "bias": [0.6839779049017637, -0.34136653367643843]}], "training_history": [{"generation": 76, "best_fitness": 105.33333333333333, "avg_fitness": 73.78333333333333, "generation_time": 598.8714849948883, "improved": false, "fitness_distribution": {"max": 105.33333333333333, "min": 49.0, "std": 14.249083791208783}}, {"generation": 77, "best_fitness": 180.66666666666666, "avg_fitness": 79.89999999999999, "generation_time": 647.4994711875916, "improved": true, "fitness_distribution": {"max": 180.66666666666666, "min": 51.0, "std": 30.83037823676872}}, {"generation": 78, "best_fitness": 174.0, "avg_fitness": 81.15, "generation_time": 637.3998870849609, "improved": false, "fitness_distribution": {"max": 174.0, "min": 55.0, "std": 27.57101436895881}}, {"generation": 79, "best_fitness": 106.0, "avg_fitness": 79.35000000000001, "generation_time": 629.1549880504608, "improved": false, "fitness_distribution": {"max": 106.0, "min": 55.333333333333336, "std": 14.496924961292077}}, {"generation": 80, "best_fitness": 115.66666666666667, "avg_fitness": 78.21666666666667, "generation_time": 622.337217092514, "improved": false, "fitness_distribution": {"max": 115.66666666666667, "min": 51.666666666666664, "std": 17.40570628015741}}], "config": {"training": {"population_size": 20, "generations": 25, "runs_per_individual": 3, "save_file": "dino_population.json", "checkpoint_interval": 5, "checkpoint_dir": "checkpoints", "max_checkpoints": 10}, "genetic": {"mutation_rate": 0.1, "mutation_scale": 0.2, "tournament_size": 3, "elite_count": 3, "elite_diversity_threshold": 0.1}, "game": {"delay": 0.01, "window_width": 800, "window_height": 600, "simulation_mode": false}}, "timestamp": "20250816_191505"}