{"generation": 75, "best_fitness": 145.0, "best_individual": {"weights": [-0.5259731569330178, 0.35139982828031735, -0.025414101451729787, 0.7794070721213606, 0.6212694841868341], "bias": [1.024908331712802, -0.34136653367643843]}, "population": [{"weights": [-0.7012588588806778, 0.4418867040985046, -0.1673507561540243, 0.7794070721213606, 0.7025915423657039], "bias": [1.024908331712802, -0.34136653367643843]}, {"weights": [-0.6571032349451378, 0.35139982828031735, -0.1673507561540243, 0.7794070721213606, 0.4616124734648679], "bias": [1.024908331712802, -0.34136653367643843]}, {"weights": [-0.7012588588806778, 0.35139982828031735, -0.28104421333264573, 0.7794070721213606, 0.6212694841868341], "bias": [1.024908331712802, -0.34136653367643843]}, {"weights": [-0.7012588588806778, 0.35139982828031735, -0.1673507561540243, 0.7794070721213606, 0.6212694841868341], "bias": [1.024908331712802, -0.34136653367643843]}, {"weights": [-0.7012588588806778, 0.35139982828031735, -0.23551528851797635, 0.7794070721213606, 0.6212694841868341], "bias": [1.024908331712802, -0.34136653367643843]}, {"weights": [-0.7012588588806778, 0.35139982828031735, -0.1673507561540243, 0.8535419278767356, 0.4616124734648679], "bias": [1.024908331712802, -0.34136653367643843]}, {"weights": [-0.7012588588806778, 0.4418867040985046, -0.1673507561540243, 0.7707013617328089, 0.7959588258147167], "bias": [1.024908331712802, -0.34136653367643843]}, {"weights": [-0.7012588588806778, 0.35139982828031735, -0.1673507561540243, 0.7794070721213606, 0.4616124734648679], "bias": [1.024908331712802, -0.34136653367643843]}, {"weights": [-0.7012588588806778, 0.5387693073938211, -0.11757516163762913, 0.7794070721213606, 0.4616124734648679], "bias": [1.024908331712802, -0.34136653367643843]}, {"weights": [-0.7012588588806778, 0.4418867040985046, -0.1673507561540243, 0.7794070721213606, 0.6212694841868341], "bias": [1.024908331712802, -0.34136653367643843]}, {"weights": [-0.7012588588806778, 0.35139982828031735, -0.1673507561540243, 0.7794070721213606, 0.6212694841868341], "bias": [1.024908331712802, -0.4516633648230691]}, {"weights": [-0.7012588588806778, 0.35139982828031735, -0.28104421333264573, 0.8535419278767356, 0.6371776011302119], "bias": [1.024908331712802, -0.34136653367643843]}, {"weights": [-0.7012588588806778, 0.4418867040985046, -0.1673507561540243, 0.7794070721213606, 0.6212694841868341], "bias": [1.024908331712802, -0.34136653367643843]}, {"weights": [-0.7012588588806778, 0.35139982828031735, -0.1673507561540243, 0.7794070721213606, 0.5594859043236855], "bias": [1.024908331712802, -0.5395667116638828]}, {"weights": [-0.7012588588806778, 0.4418867040985046, -0.1673507561540243, 0.7794070721213606, 0.7025915423657039], "bias": [1.024908331712802, -0.34136653367643843]}, {"weights": [-0.7012588588806778, 0.35139982828031735, -0.1673507561540243, 0.7794070721213606, 0.4616124734648679], "bias": [1.024908331712802, -0.34136653367643843]}, {"weights": [-0.7012588588806778, 0.35139982828031735, -0.1673507561540243, 0.7794070721213606, 0.6212694841868341], "bias": [1.024908331712802, -0.34136653367643843]}, {"weights": [-0.7012588588806778, 0.35139982828031735, -0.1673507561540243, 0.7794070721213606, 0.6212694841868341], "bias": [1.024908331712802, -0.34136653367643843]}, {"weights": [-0.7012588588806778, 0.4418867040985046, -0.28104421333264573, 0.8535419278767356, 0.7025915423657039], "bias": [1.024908331712802, -0.2976933665691846]}, {"weights": [-0.7012588588806778, 0.35139982828031735, -0.1673507561540243, 0.7794070721213606, 0.7025915423657039], "bias": [1.024908331712802, -0.34136653367643843]}], "training_history": [{"generation": 73, "best_fitness": 124.66666666666667, "avg_fitness": 74.04999999999998, "generation_time": 1019.598180770874, "improved": false, "fitness_distribution": {"max": 124.66666666666667, "min": 52.0, "std": 18.22857189505896}}, {"generation": 74, "best_fitness": 113.66666666666667, "avg_fitness": 72.8, "generation_time": 1406.3709108829498, "improved": false, "fitness_distribution": {"max": 113.66666666666667, "min": 51.666666666666664, "std": 16.057327852970364}}, {"generation": 75, "best_fitness": 116.66666666666667, "avg_fitness": 75.51666666666668, "generation_time": 1119.2120819091797, "improved": false, "fitness_distribution": {"max": 116.66666666666667, "min": 32.333333333333336, "std": 19.167818805951235}}], "config": {"training": {"population_size": 20, "generations": 3, "runs_per_individual": 3, "save_file": "dino_population.json", "checkpoint_interval": 5, "checkpoint_dir": "checkpoints", "max_checkpoints": 10}, "genetic": {"mutation_rate": 0.1, "mutation_scale": 0.2, "tournament_size": 3, "elite_count": 3, "elite_diversity_threshold": 0.1}, "game": {"delay": 0.01, "window_width": 800, "window_height": 600, "simulation_mode": false}}, "timestamp": "20250816_181856"}