{"generation": 55, "best_fitness": 560.6666666666666, "best_individual": {"weights": [-0.7012588588806778, -0.1620105964712063, 0.005774419798961095, 0.40115287321469545, 0.4022957366631816], "bias": [0.9026631491788762, -0.8336764742857831]}, "population": [{"weights": [-0.7012588588806778, 0.16854320093719663, 0.1936450378851746, 0.7408867081484272, 0.4822814216244509], "bias": [0.9412592299680302, -0.6258325449018541]}, {"weights": [-0.7012588588806778, 0.16854320093719663, 0.005774419798961095, 0.7408867081484272, 0.4822814216244509], "bias": [0.9412592299680302, -0.6258325449018541]}, {"weights": [-0.7012588588806778, 0.011804386046434384, 0.005774419798961095, 0.6170510953768361, 0.4822814216244509], "bias": [0.8897188809558013, -0.6258325449018541]}, {"weights": [-0.7012588588806778, 0.16854320093719663, 0.005774419798961095, 0.7408867081484272, 0.4822814216244509], "bias": [0.731626081589023, -0.6258325449018541]}, {"weights": [-0.7012588588806778, 0.16854320093719663, 0.005774419798961095, 0.7408867081484272, 0.4822814216244509], "bias": [0.9103208159470516, -0.5375446932409428]}, {"weights": [-0.7012588588806778, 0.16854320093719663, 0.1936450378851746, 0.7408867081484272, 0.4822814216244509], "bias": [1.0518065406770563, -0.6258325449018541]}, {"weights": [-0.7012588588806778, 0.16854320093719663, -0.110912461334642, 0.7408867081484272, 0.4822814216244509], "bias": [0.7488768297481747, -0.5375446932409428]}, {"weights": [-0.7012588588806778, 0.16854320093719663, -0.024631244677505704, 0.7408867081484272, 0.4822814216244509], "bias": [0.9103208159470516, -0.6258325449018541]}, {"weights": [-0.7012588588806778, 0.16854320093719663, 0.005774419798961095, 0.7408867081484272, 0.5113111391671203], "bias": [0.9412592299680302, -0.6258325449018541]}, {"weights": [-0.7012588588806778, 0.16854320093719663, 0.005774419798961095, 0.7408867081484272, 0.4822814216244509], "bias": [0.8449392559209205, -0.6258325449018541]}, {"weights": [-0.7012588588806778, 0.16854320093719663, 0.1936450378851746, 0.7408867081484272, 0.4822814216244509], "bias": [0.9103208159470516, -0.6258325449018541]}, {"weights": [-0.7012588588806778, 0.16854320093719663, 0.005774419798961095, 0.7408867081484272, 0.4822814216244509], "bias": [0.7229997377618025, -0.6258325449018541]}, {"weights": [-0.7736017768705359, 0.16854320093719663, 0.1936450378851746, 0.7408867081484272, 0.4822814216244509], "bias": [0.9412592299680302, -0.6258325449018541]}, {"weights": [-0.7012588588806778, 0.011804386046434384, 0.005774419798961095, 0.7408867081484272, 0.4822814216244509], "bias": [0.9103208159470516, -0.6113098508820457]}, {"weights": [-0.7012588588806778, 0.16854320093719663, 0.005774419798961095, 0.7408867081484272, 0.36019213589095234], "bias": [0.8449392559209205, -0.5442197099097503]}, {"weights": [-0.7012588588806778, 0.011804386046434384, 0.1936450378851746, 0.7434061810405337, 0.4822814216244509], "bias": [0.9103208159470516, -0.6258325449018541]}, {"weights": [-0.7012588588806778, 0.16854320093719663, 0.1936450378851746, 0.7408867081484272, 0.4822814216244509], "bias": [0.9412592299680302, -0.6258325449018541]}, {"weights": [-0.7012588588806778, 0.07310988138419532, 0.005774419798961095, 0.7408867081484272, 0.4822814216244509], "bias": [0.9103208159470516, -0.6258325449018541]}, {"weights": [-0.7012588588806778, 0.16854320093719663, 0.005774419798961095, 0.7408867081484272, 0.4822814216244509], "bias": [0.9103208159470516, -0.6258325449018541]}, {"weights": [-0.7012588588806778, 0.16854320093719663, 0.005774419798961095, 0.7408867081484272, 0.4822814216244509], "bias": [0.9412592299680302, -0.5375446932409428]}], "training_history": [{"generation": 51, "best_fitness": 77.66666666666667, "avg_fitness": 53.766666666666666, "generation_time": 538.1725051403046, "improved": false, "fitness_distribution": {"max": 77.66666666666667, "min": 44.333333333333336, "std": 7.65368466092567}}, {"generation": 52, "best_fitness": 79.33333333333333, "avg_fitness": 55.26666666666667, "generation_time": 570.80406498909, "improved": false, "fitness_distribution": {"max": 79.33333333333333, "min": 44.0, "std": 10.748436578818747}}, {"generation": 53, "best_fitness": 114.0, "avg_fitness": 68.05, "generation_time": 553.4764308929443, "improved": false, "fitness_distribution": {"max": 114.0, "min": 44.0, "std": 16.25261517418043}}, {"generation": 54, "best_fitness": 188.66666666666666, "avg_fitness": 80.1, "generation_time": 657.6354207992554, "improved": false, "fitness_distribution": {"max": 188.66666666666666, "min": 47.0, "std": 31.327144778929338}}, {"generation": 55, "best_fitness": 110.66666666666667, "avg_fitness": 75.76666666666665, "generation_time": 605.4743230342865, "improved": false, "fitness_distribution": {"max": 110.66666666666667, "min": 53.666666666666664, "std": 13.765133086493893}}], "config": {"training": {"population_size": 20, "generations": 50, "runs_per_individual": 3, "save_file": "dino_population.json", "checkpoint_interval": 5, "checkpoint_dir": "checkpoints", "max_checkpoints": 10}, "genetic": {"mutation_rate": 0.1, "mutation_scale": 0.2, "tournament_size": 3, "elite_count": 3, "elite_diversity_threshold": 0.1}, "game": {"delay": 0.01, "window_width": 800, "window_height": 600, "simulation_mode": false}}, "timestamp": "20250816_123723"}