{"generation": 85, "best_fitness": 180.66666666666666, "best_individual": {"weights": [-0.7012588588806778, 0.4418867040985046, -0.1673507561540243, 0.7794070721213606, 0.7025915423657039], "bias": [1.024908331712802, -0.34136653367643843]}, "population": [{"weights": [-0.6906252346803242, 0.35139982828031735, -0.0019135394784469406, 0.7750829906909401, 0.6212694841868341], "bias": [1.024908331712802, -0.3285856024526862]}, {"weights": [-0.6400867263084292, 0.35139982828031735, -0.1673507561540243, 0.556744751158045, 0.6212694841868341], "bias": [1.024908331712802, -0.3285856024526862]}, {"weights": [-0.6906252346803242, 0.35139982828031735, -0.0019135394784469406, 0.7318283331194108, 0.782023012297376], "bias": [1.024908331712802, -0.19173766416460492]}, {"weights": [-0.6557919638013702, 0.35139982828031735, -0.1673507561540243, 0.8160616968110137, 0.6212694841868341], "bias": [1.024908331712802, -0.3285856024526862]}, {"weights": [-0.6906252346803242, 0.35139982828031735, -0.0019135394784469406, 0.7750829906909401, 0.6212694841868341], "bias": [1.024908331712802, -0.19173766416460492]}, {"weights": [-0.6906252346803242, 0.46911905121050285, -0.14905986660533102, 0.7318283331194108, 0.7331313773238324], "bias": [0.9207152130011816, -0.19173766416460492]}, {"weights": [-0.6400867263084292, 0.46911905121050285, -0.14905986660533102, 0.7318283331194108, 0.782023012297376], "bias": [1.024908331712802, -0.19173766416460492]}, {"weights": [-0.6906252346803242, 0.23260277704776874, -0.0019135394784469406, 0.7318283331194108, 0.7331313773238324], "bias": [1.024908331712802, -0.19173766416460492]}, {"weights": [-0.6400867263084292, 0.46911905121050285, -0.14905986660533102, 0.7318283331194108, 0.7943522272805896], "bias": [0.9207152130011816, -0.3285856024526862]}, {"weights": [-0.6906252346803242, 0.35139982828031735, -0.14905986660533102, 0.7750829906909401, 0.6212694841868341], "bias": [0.9207152130011816, -0.3026259886554601]}, {"weights": [-0.6400867263084292, 0.46911905121050285, -0.14905986660533102, 0.8160616968110137, 0.6212694841868341], "bias": [0.9207152130011816, -0.3285856024526862]}, {"weights": [-0.7593249387087079, 0.46911905121050285, -0.14905986660533102, 0.7318283331194108, 0.6212694841868341], "bias": [1.024908331712802, -0.3285856024526862]}, {"weights": [-0.6400867263084292, 0.46911905121050285, -0.0019135394784469406, 0.7318283331194108, 0.7331313773238324], "bias": [0.9207152130011816, -0.3285856024526862]}, {"weights": [-0.6906252346803242, 0.35139982828031735, -0.0019135394784469406, 0.7318283331194108, 0.6212694841868341], "bias": [1.024908331712802, -0.19173766416460492]}, {"weights": [-0.6400867263084292, 0.46911905121050285, -0.1253774837657445, 0.8160616968110137, 0.6212694841868341], "bias": [1.024908331712802, -0.3285856024526862]}, {"weights": [-0.6400867263084292, 0.4808815486053152, -0.0019135394784469406, 0.7318283331194108, 0.6212694841868341], "bias": [1.024908331712802, -0.3285856024526862]}, {"weights": [-0.6400867263084292, 0.35139982828031735, -0.14905986660533102, 0.7318283331194108, 0.6212694841868341], "bias": [0.9825870055094927, -0.13205754250165325]}, {"weights": [-0.6400867263084292, 0.35139982828031735, -0.14905986660533102, 0.7318283331194108, 0.6212694841868341], "bias": [0.9207152130011816, -0.3285856024526862]}, {"weights": [-0.6906252346803242, 0.46911905121050285, -0.14905986660533102, 0.7318283331194108, 0.782023012297376], "bias": [0.8316809200610282, -0.19173766416460492]}, {"weights": [-0.6906252346803242, 0.46911905121050285, -0.14905986660533102, 0.6151647612314756, 0.782023012297376], "bias": [0.9207152130011816, -0.3285856024526862]}], "training_history": [{"generation": 76, "best_fitness": 105.33333333333333, "avg_fitness": 73.78333333333333, "generation_time": 598.8714849948883, "improved": false, "fitness_distribution": {"max": 105.33333333333333, "min": 49.0, "std": 14.249083791208783}}, {"generation": 77, "best_fitness": 180.66666666666666, "avg_fitness": 79.89999999999999, "generation_time": 647.4994711875916, "improved": true, "fitness_distribution": {"max": 180.66666666666666, "min": 51.0, "std": 30.83037823676872}}, {"generation": 78, "best_fitness": 174.0, "avg_fitness": 81.15, "generation_time": 637.3998870849609, "improved": false, "fitness_distribution": {"max": 174.0, "min": 55.0, "std": 27.57101436895881}}, {"generation": 79, "best_fitness": 106.0, "avg_fitness": 79.35000000000001, "generation_time": 629.1549880504608, "improved": false, "fitness_distribution": {"max": 106.0, "min": 55.333333333333336, "std": 14.496924961292077}}, {"generation": 80, "best_fitness": 115.66666666666667, "avg_fitness": 78.21666666666667, "generation_time": 622.337217092514, "improved": false, "fitness_distribution": {"max": 115.66666666666667, "min": 51.666666666666664, "std": 17.40570628015741}}, {"generation": 81, "best_fitness": 102.0, "avg_fitness": 74.33333333333334, "generation_time": 598.7041809558868, "improved": false, "fitness_distribution": {"max": 102.0, "min": 51.333333333333336, "std": 12.99487078299229}}, {"generation": 82, "best_fitness": 104.33333333333333, "avg_fitness": 74.03333333333333, "generation_time": 596.6761889457703, "improved": false, "fitness_distribution": {"max": 104.33333333333333, "min": 49.333333333333336, "std": 14.30613698926288}}, {"generation": 83, "best_fitness": 108.0, "avg_fitness": 71.30000000000001, "generation_time": 579.6685259342194, "improved": false, "fitness_distribution": {"max": 108.0, "min": 49.0, "std": 15.930020576118398}}, {"generation": 84, "best_fitness": 139.0, "avg_fitness": 79.66666666666666, "generation_time": 628.8378851413727, "improved": false, "fitness_distribution": {"max": 139.0, "min": 53.666666666666664, "std": 23.824590471005184}}, {"generation": 85, "best_fitness": 109.66666666666667, "avg_fitness": 80.7, "generation_time": 637.587170124054, "improved": false, "fitness_distribution": {"max": 109.66666666666667, "min": 51.333333333333336, "std": 18.398641254179612}}], "config": {"training": {"population_size": 20, "generations": 25, "runs_per_individual": 3, "save_file": "dino_population.json", "checkpoint_interval": 5, "checkpoint_dir": "checkpoints", "max_checkpoints": 10}, "genetic": {"mutation_rate": 0.1, "mutation_scale": 0.2, "tournament_size": 3, "elite_count": 3, "elite_diversity_threshold": 0.1}, "game": {"delay": 0.01, "window_width": 800, "window_height": 600, "simulation_mode": false}}, "timestamp": "20250816_200546"}